<?xml version="1.0"?>
<MethodSetup Method="DNN::DNN">
  <GeneralInfo>
    <Info name="TMVA Release" value="4.2.1 [262657]"/>
    <Info name="ROOT Release" value="6.12/06 [396294]"/>
    <Info name="Creator" value="kumar"/>
    <Info name="Date" value="Mon Oct 29 16:17:20 2018"/>
    <Info name="Host" value="Linux SFT-ubuntu-1710-2 4.13.0-25-generic #29-Ubuntu SMP Mon Jan 8 21:14:41 UTC 2018 x86_64 x86_64 x86_64 GNU/Linux"/>
    <Info name="Dir" value="/home/kumar/Desktop/Neural Net/Neural Networks"/>
    <Info name="Training events" value="20000"/>
    <Info name="TrainingTime" value="6.45277989e+01"/>
    <Info name="AnalysisType" value="Classification"/>
  </GeneralInfo>
  <Options>
    <Option name="V" modified="Yes">False</Option>
    <Option name="VerbosityLevel" modified="No">Default</Option>
    <Option name="VarTransform" modified="Yes">Normalize</Option>
    <Option name="H" modified="Yes">False</Option>
    <Option name="CreateMVAPdfs" modified="No">False</Option>
    <Option name="IgnoreNegWeightsInTraining" modified="No">False</Option>
    <Option name="Layout" modified="Yes">SIGMOID|10,SIGMOID|10,SIGMOID|10,LINEAR</Option>
    <Option name="ValidationSize" modified="No">20%</Option>
    <Option name="ErrorStrategy" modified="Yes">CROSSENTROPY</Option>
    <Option name="WeightInitialization" modified="No">XAVIER</Option>
    <Option name="Architecture" modified="Yes">CPU</Option>
    <Option name="TrainingStrategy" modified="Yes">ConvergenceSteps=100,Regularization=NONE,BatchSize=50,TestRepetitions=7,LearningRate=0.1,Multithreading=True,Momentum=0.0,WeightDecay=0.001,Repetitions=1,DropRepetitions=1,DropConfig=0.0+0.5+0.5+0.5</Option>
  </Options>
  <Variables NVar="12">
    <Variable VarIndex="0" Expression="e1nCrys_decorr" Label="e1nCrys_decorr" Title="e1nCrys_decorr" Unit="" Internal="e1nCrys_decorr" Type="F" Min="-3.04734497e+01" Max="2.54657288e+01"/>
    <Variable VarIndex="1" Expression="e1Lat" Label="e1Lat" Title="e1Lat" Unit="" Internal="e1Lat" Type="F" Min="0.00000000e+00" Max="7.99973309e-01"/>
    <Variable VarIndex="2" Expression="e1A42" Label="e1A42" Title="e1A42" Unit="" Internal="e1A42" Type="F" Min="1.89166076e-05" Max="3.19493890e-01"/>
    <Variable VarIndex="3" Expression="e1CosTheta" Label="e1CosTheta" Title="e1CosTheta" Unit="" Internal="e1CosTheta" Type="F" Min="-5.99983454e-01" Max="5.99996150e-01"/>
    <Variable VarIndex="4" Expression="e2CosTheta" Label="e2CosTheta" Title="e2CosTheta" Unit="" Internal="e2CosTheta" Type="F" Min="-9.13028538e-01" Max="9.06818688e-01"/>
    <Variable VarIndex="5" Expression="extraE" Label="extraE" Title="extraE" Unit="" Internal="extraE" Type="F" Min="0.00000000e+00" Max="1.98586559e+00"/>
    <Variable VarIndex="6" Expression="backNHphi" Label="backNHphi" Title="backNHphi" Unit="" Internal="backNHphi" Type="F" Min="-9.49998021e-01" Max="1.00000000e+00"/>
    <Variable VarIndex="7" Expression="IFRfiducial" Label="IFRfiducial" Title="IFRfiducial" Unit="" Internal="IFRfiducial" Type="F" Min="-1.00000000e+00" Max="9.79917347e-01"/>
    <Variable VarIndex="8" Expression="MissEmcPhiDist" Label="MissEmcPhiDist" Title="MissEmcPhiDist" Unit="" Internal="MissEmcPhiDist" Type="F" Min="-2.27658796e+00" Max="5.24096870e+00"/>
    <Variable VarIndex="9" Expression="MissEmcThetaDist" Label="MissEmcThetaDist" Title="MissEmcThetaDist" Unit="" Internal="MissEmcThetaDist" Type="F" Min="-2.30988431e+00" Max="6.49914920e-01"/>
    <Variable VarIndex="10" Expression="e2Mag" Label="e2Mag" Title="e2Mag" Unit="" Internal="e2Mag" Type="F" Min="0.00000000e+00" Max="4.99921352e-01"/>
    <Variable VarIndex="11" Expression="photonCorr" Label="photonCorr" Title="photonCorr" Unit="" Internal="photonCorr" Type="F" Min="-1.00000000e+00" Max="9.99999940e-01"/>
  </Variables>
  <Spectators NSpec="0"/>
  <Classes NClass="2">
    <Class Name="Signal" Index="0"/>
    <Class Name="Background" Index="1"/>
  </Classes>
  <Transformations NTransformations="1">
    <Transform Name="Normalize">
      <Selection>
        <Input NInputs="12">
          <Input Type="Variable" Label="e1nCrys_decorr" Expression="e1nCrys_decorr"/>
          <Input Type="Variable" Label="e1Lat" Expression="e1Lat"/>
          <Input Type="Variable" Label="e1A42" Expression="e1A42"/>
          <Input Type="Variable" Label="e1CosTheta" Expression="e1CosTheta"/>
          <Input Type="Variable" Label="e2CosTheta" Expression="e2CosTheta"/>
          <Input Type="Variable" Label="extraE" Expression="extraE"/>
          <Input Type="Variable" Label="backNHphi" Expression="backNHphi"/>
          <Input Type="Variable" Label="IFRfiducial" Expression="IFRfiducial"/>
          <Input Type="Variable" Label="MissEmcPhiDist" Expression="MissEmcPhiDist"/>
          <Input Type="Variable" Label="MissEmcThetaDist" Expression="MissEmcThetaDist"/>
          <Input Type="Variable" Label="e2Mag" Expression="e2Mag"/>
          <Input Type="Variable" Label="photonCorr" Expression="photonCorr"/>
        </Input>
        <Output NOutputs="12">
          <Output Type="Variable" Label="e1nCrys_decorr" Expression="e1nCrys_decorr"/>
          <Output Type="Variable" Label="e1Lat" Expression="e1Lat"/>
          <Output Type="Variable" Label="e1A42" Expression="e1A42"/>
          <Output Type="Variable" Label="e1CosTheta" Expression="e1CosTheta"/>
          <Output Type="Variable" Label="e2CosTheta" Expression="e2CosTheta"/>
          <Output Type="Variable" Label="extraE" Expression="extraE"/>
          <Output Type="Variable" Label="backNHphi" Expression="backNHphi"/>
          <Output Type="Variable" Label="IFRfiducial" Expression="IFRfiducial"/>
          <Output Type="Variable" Label="MissEmcPhiDist" Expression="MissEmcPhiDist"/>
          <Output Type="Variable" Label="MissEmcThetaDist" Expression="MissEmcThetaDist"/>
          <Output Type="Variable" Label="e2Mag" Expression="e2Mag"/>
          <Output Type="Variable" Label="photonCorr" Expression="photonCorr"/>
        </Output>
      </Selection>
      <Class ClassIndex="0">
        <Ranges>
          <Range Index="0" Min="-1.1966079711914062e+01" Max="1.6812013626098633e+01"/>
          <Range Index="1" Min="1.5219712257385254e-01" Max="7.1748799085617065e-01"/>
          <Range Index="2" Min="1.2141000479459763e-04" Max="1.0400511324405670e-01"/>
          <Range Index="3" Min="-5.9998345375061035e-01" Max="5.9999614953994751e-01"/>
          <Range Index="4" Min="-9.1271895170211792e-01" Max="9.0365141630172729e-01"/>
          <Range Index="5" Min="0.0000000000000000e+00" Max="1.0821036100387573e+00"/>
          <Range Index="6" Min="-9.4985967874526978e-01" Max="1.0000000000000000e+00"/>
          <Range Index="7" Min="-1.0000000000000000e+00" Max="9.7989094257354736e-01"/>
          <Range Index="8" Min="-2.2737424373626709e+00" Max="1.0554385185241699e-01"/>
          <Range Index="9" Min="-2.3090810775756836e+00" Max="2.4983088672161102e-01"/>
          <Range Index="10" Min="0.0000000000000000e+00" Max="4.9719482660293579e-01"/>
          <Range Index="11" Min="-1.0000000000000000e+00" Max="9.9999994039535522e-01"/>
        </Ranges>
      </Class>
      <Class ClassIndex="1">
        <Ranges>
          <Range Index="0" Min="-3.0473449707031250e+01" Max="2.5465728759765625e+01"/>
          <Range Index="1" Min="0.0000000000000000e+00" Max="7.9997330904006958e-01"/>
          <Range Index="2" Min="1.8916607587016188e-05" Max="3.1949388980865479e-01"/>
          <Range Index="3" Min="-5.9996652603149414e-01" Max="5.9915679693222046e-01"/>
          <Range Index="4" Min="-9.1302853822708130e-01" Max="9.0681868791580200e-01"/>
          <Range Index="5" Min="0.0000000000000000e+00" Max="1.9858655929565430e+00"/>
          <Range Index="6" Min="-9.4999802112579346e-01" Max="1.0000000000000000e+00"/>
          <Range Index="7" Min="-1.0000000000000000e+00" Max="9.7991734743118286e-01"/>
          <Range Index="8" Min="-2.2765879631042480e+00" Max="5.2409687042236328e+00"/>
          <Range Index="9" Min="-2.3098843097686768e+00" Max="6.4991492033004761e-01"/>
          <Range Index="10" Min="0.0000000000000000e+00" Max="4.9992135167121887e-01"/>
          <Range Index="11" Min="-1.0000000000000000e+00" Max="9.9999994039535522e-01"/>
        </Ranges>
      </Class>
      <Class ClassIndex="2">
        <Ranges>
          <Range Index="0" Min="-3.0473449707031250e+01" Max="2.5465728759765625e+01"/>
          <Range Index="1" Min="0.0000000000000000e+00" Max="7.9997330904006958e-01"/>
          <Range Index="2" Min="1.8916607587016188e-05" Max="3.1949388980865479e-01"/>
          <Range Index="3" Min="-5.9998345375061035e-01" Max="5.9999614953994751e-01"/>
          <Range Index="4" Min="-9.1302853822708130e-01" Max="9.0681868791580200e-01"/>
          <Range Index="5" Min="0.0000000000000000e+00" Max="1.9858655929565430e+00"/>
          <Range Index="6" Min="-9.4999802112579346e-01" Max="1.0000000000000000e+00"/>
          <Range Index="7" Min="-1.0000000000000000e+00" Max="9.7991734743118286e-01"/>
          <Range Index="8" Min="-2.2765879631042480e+00" Max="5.2409687042236328e+00"/>
          <Range Index="9" Min="-2.3098843097686768e+00" Max="6.4991492033004761e-01"/>
          <Range Index="10" Min="0.0000000000000000e+00" Max="4.9992135167121887e-01"/>
          <Range Index="11" Min="-1.0000000000000000e+00" Max="9.9999994039535522e-01"/>
        </Ranges>
      </Class>
    </Transform>
  </Transformations>
  <MVAPdfs/>
  <Weights InputWidth="12" Depth="4" LossFunction="C" OutputFunction="S">
    <Layer ActivationFunction="2">
      <Weights rows="10" cols="12">
        -3.3048978447914124e-01 5.3050098419189453e+00 4.2264275550842285e+00 1.5516756772994995e+00 -1.9822806119918823e-01 2.3772318661212921e-01 -4.9994543194770813e-01 1.6564491391181946e-01 -9.4392758607864380e-01 5.2913855761289597e-02 1.8798369169235229e+00 -3.9110639691352844e-01 4.6742320060729980e+00 1.4530249834060669e+00 1.9220923185348511e+00 3.9589121341705322e+00 -3.5130310058593750e-01 -1.8754700422286987e+00 6.3960224390029907e-01 -2.1438449621200562e-01 -2.8823080658912659e-01 -1.1368788778781891e-01 -2.0607285499572754e+00 3.3304861187934875e-01 -8.1655889749526978e-01 1.0846638679504395e+00 -1.9252662360668182e-01 -2.9052321910858154e+00 7.2587234899401665e-03 1.0799825191497803e+00 -9.7129875421524048e-01 4.6946868300437927e-02 5.5690407752990723e-01 -1.5892738103866577e-01 8.1147933006286621e-01 -1.5649394690990448e-01 5.2203083038330078e-01 -4.2177000045776367e+00 -2.3871762752532959e+00 -2.4418485164642334e-01 -5.6115001440048218e-01 2.9304885864257812e-01 -4.5703372359275818e-01 7.9433053731918335e-02 -8.7218463420867920e-01 1.6824817657470703e-01 -2.0778670310974121e+00 1.2657532691955566e+00 -8.0025529861450195e-01 -4.9213786125183105e+00 -3.5103387832641602e+00 -8.0575919151306152e-01 4.9795914441347122e-02 6.6842120885848999e-01 5.4380226135253906e-01 2.2201529145240784e-01 -3.4776492118835449e+00 -1.8199472129344940e-01 -1.2053549289703369e+00 -5.1657281816005707e-02 -5.3265352249145508e+00 6.5691226720809937e-01 -2.5036102533340454e-01 -1.3235050439834595e+00 1.8489615991711617e-02 7.9182630777359009e-01 -8.0864953994750977e-01 2.3366931080818176e-01 4.9387505650520325e-01 1.7146833240985870e-01 2.1313176155090332e+00 -4.8709225654602051e-01 -6.7554459571838379e+00 -1.8986465930938721e+00 -2.2945287227630615e+00 -3.4469300508499146e-01 3.4544017910957336e-01 2.3274996280670166e+00 5.1166951656341553e-01 5.0511747598648071e-01 3.9815947413444519e-01 1.4535471796989441e-02 3.8411900997161865e+00 -1.9351050853729248e+00 -1.7768207192420959e-01 -5.2106976509094238e-01 -1.5438446998596191e+00 -1.3935905694961548e-01 4.7112941741943359e-01 -6.5299516916275024e-01 -5.6849318742752075e-01 1.6209432482719421e-01 -7.4503666162490845e-01 -1.6305513679981232e-01 -1.9320156574249268e+00 -3.2554793357849121e-01 8.6256589889526367e+00 -3.8077650070190430e+00 -4.1778397560119629e+00 -2.3080658912658691e+00 -3.5553646087646484e-01 5.7307851314544678e-01 -8.1232577562332153e-01 -1.5521594882011414e-01 -5.8977212756872177e-02 -1.7444182932376862e-01 -3.5340530872344971e+00 7.2100019454956055e-01 -6.3393287658691406e+00 3.5941061973571777e+00 2.4490424990653992e-01 -1.1152037382125854e+00 -8.0125048756599426e-02 2.6532110571861267e-01 -8.3524584770202637e-01 1.0264696925878525e-01 6.7901104688644409e-01 1.7370016872882843e-01 1.6497569084167480e+00 1.7373009026050568e-01 
      </Weights>
      <Biases rows="10" cols="1">
        1.9219845533370972e+00 2.0309283733367920e+00 -2.8319045901298523e-01 -1.7759832143783569e+00 -2.7157838344573975e+00 1.6919552087783813e+00 -2.3297011852264404e-01 6.1263430118560791e-01 -4.9139881134033203e+00 2.3877027034759521e+00 
      </Biases>
    </Layer>
    <Layer ActivationFunction="2">
      <Weights rows="10" cols="10">
        -6.3707834482192993e-01 2.1293802261352539e+00 -1.1492852121591568e-01 9.3082678318023682e-01 8.4555840492248535e-01 -4.8539590835571289e-01 -8.2000523805618286e-01 -1.2512531280517578e+00 7.4132919311523438e-01 -1.3314166069030762e+00 1.1285312175750732e+00 -3.1261309981346130e-01 1.3602454662322998e+00 3.5599681735038757e-01 -1.0809752345085144e-01 1.8347257375717163e+00 2.2077088356018066e+00 -5.3847253322601318e-01 -2.4632947444915771e+00 1.2124624252319336e+00 6.1987042427062988e-01 -8.1480479240417480e-01 4.0648871660232544e-01 -1.7052505910396576e-01 1.8146079778671265e-01 1.1480175256729126e+00 4.7728264331817627e-01 4.9412173032760620e-01 -4.6190622448921204e-01 1.1843006610870361e+00 5.4231137037277222e-01 -3.9558091163635254e+00 4.8911282420158386e-01 -9.0123349428176880e-01 9.0130543708801270e-01 6.0863995552062988e-01 1.2705401182174683e+00 -1.2327965348958969e-01 -1.3372454643249512e+00 1.1664992570877075e+00 8.5313242673873901e-01 5.5661994218826294e-01 4.7270044684410095e-01 -9.5694917440414429e-01 -2.3358294963836670e+00 7.9667556285858154e-01 9.4291096925735474e-01 1.2425037622451782e+00 -7.8627264499664307e-01 1.2271950244903564e+00 -7.9879656434059143e-02 3.8870313763618469e-01 -4.1407224535942078e-01 2.0022438466548920e-01 5.9265446662902832e-01 4.1822752356529236e-01 -1.0493119955062866e+00 2.1418347954750061e-01 1.8062616884708405e-01 -7.4912047386169434e-01 -6.2583225965499878e-01 -3.5589066147804260e-01 4.3587484955787659e-01 9.8726511001586914e-01 2.7062547206878662e+00 2.0709273219108582e-01 -6.1802971363067627e-01 1.6311672329902649e-01 2.4012534618377686e+00 -1.1653797626495361e+00 1.5109446048736572e+00 -3.5316438674926758e+00 5.6186455488204956e-01 3.6075374484062195e-01 7.7160817384719849e-01 2.6433318853378296e-01 1.0014917850494385e+00 1.6226259469985962e+00 -7.8380298614501953e-01 3.5589894652366638e-01 2.9722231626510620e-01 2.7132722735404968e-01 8.7095975875854492e-01 -9.1748154163360596e-01 -2.7872538566589355e+00 -5.5698829889297485e-01 7.3326516151428223e-01 6.0966807603836060e-01 -1.4646971225738525e+00 1.5803157091140747e+00 -4.7661173343658447e-01 3.1746857166290283e+00 1.4531813561916351e-01 8.3354330062866211e-01 -9.2131173610687256e-01 -9.4504350423812866e-01 -7.9624193906784058e-01 4.7303614020347595e-01 1.2680391073226929e+00 -3.9267575740814209e-01 
      </Weights>
      <Biases rows="10" cols="1">
        -4.0917199850082397e-01 -7.2783946990966797e-01 1.6754469275474548e-01 5.3383237123489380e-01 5.2941578626632690e-01 -3.6317240446805954e-02 -6.6288566589355469e-01 6.1436378955841064e-01 -1.1954521387815475e-01 -6.7169350385665894e-01 
      </Biases>
    </Layer>
    <Layer ActivationFunction="2">
      <Weights rows="10" cols="10">
        -1.5801571607589722e+00 3.4367237091064453e+00 -5.4174739867448807e-02 1.1654559373855591e+00 1.9844374656677246e+00 -6.6277378797531128e-01 -4.6942505985498428e-02 1.1325836181640625e+00 1.9470624923706055e+00 9.9057716131210327e-01 6.1931902170181274e-01 -5.2764451503753662e-01 -4.9291360378265381e-01 -9.6407687664031982e-01 -8.5744595527648926e-01 1.1550725698471069e+00 2.0363428592681885e+00 -1.0794464349746704e+00 -2.1189038753509521e+00 1.2465413808822632e+00 1.0480037927627563e+00 -2.1010894775390625e+00 -1.2282810211181641e+00 -3.0090186595916748e+00 -1.5572384595870972e+00 -5.3266865015029907e-01 -9.3521863222122192e-02 -3.4905369281768799e+00 -2.3412024974822998e+00 -2.1249407529830933e-01 5.2228170633316040e-01 -3.9150771498680115e-01 4.4854864478111267e-01 -1.6031190156936646e+00 -7.0904928445816040e-01 3.3628666400909424e-01 1.5685502290725708e+00 -8.9296275377273560e-01 -7.8107553720474243e-01 1.8968500196933746e-01 7.4091202020645142e-01 2.0272879600524902e+00 -8.1120783090591431e-01 -4.6244159340858459e-02 -2.3425973951816559e-01 -1.0898871421813965e+00 -6.3225054740905762e-01 8.0858540534973145e-01 9.7705316543579102e-01 -9.1230261325836182e-01 -8.6678183078765869e-01 3.2899555563926697e-01 7.4503654241561890e-01 8.0982089042663574e-01 1.0315529108047485e+00 4.9687835574150085e-01 -2.4845807552337646e+00 1.6973849534988403e+00 8.3453428745269775e-01 -1.3988850116729736e+00 -1.6960897445678711e+00 5.4220989346504211e-02 2.8510849922895432e-02 1.8548352718353271e+00 1.3455731868743896e+00 1.0683161020278931e+00 -2.8833036422729492e+00 2.4336421489715576e+00 1.7103359699249268e+00 -5.1660871505737305e-01 1.4095289707183838e+00 -8.9851325750350952e-01 -1.6025057435035706e-01 -1.9841302633285522e+00 -1.6948348283767700e+00 4.8858903348445892e-02 2.3745229244232178e+00 -8.5526466369628906e-02 -1.8823235034942627e+00 1.5776767730712891e+00 -1.0056784152984619e+00 1.0691835880279541e+00 -8.2471156120300293e-01 1.5907291173934937e+00 7.9952859878540039e-01 -1.0311424732208252e+00 9.5594054460525513e-01 1.4345690011978149e+00 1.9588942527770996e+00 -7.1792304515838623e-01 6.6652703285217285e-01 -5.8008682727813721e-01 -4.2051494121551514e-01 -3.0199600383639336e-02 -8.6909854412078857e-01 2.6720607280731201e-01 3.5694786906242371e-01 -2.0714494585990906e-01 -5.6788486242294312e-01 -3.0634588003158569e-01 
      </Weights>
      <Biases rows="10" cols="1">
        -1.3988919258117676e+00 1.1652703285217285e+00 1.9066244363784790e+00 7.3912429809570312e-01 -1.1555628776550293e+00 -1.2105163335800171e+00 -1.4673038721084595e+00 1.4134913682937622e+00 -8.3800184726715088e-01 1.1415850371122360e-01 
      </Biases>
    </Layer>
    <Layer ActivationFunction="0">
      <Weights rows="1" cols="10">
        -2.0346090793609619e+00 7.0814736187458038e-02 3.6861670017242432e+00 1.9617842137813568e-01 -3.5075142383575439e+00 -1.8438736200332642e+00 -2.7185442447662354e+00 3.3794183731079102e+00 -2.6622085571289062e+00 1.1929895877838135e+00 
      </Weights>
      <Biases rows="1" cols="1">
        1.5794086456298828e+00 
      </Biases>
    </Layer>
  </Weights>
</MethodSetup>
